/*
 * Copyright (c) 2025 EdgeImpulse Inc.
 *
 * Generated by Edge Impulse and licensed under the applicable Edge Impulse
 * Terms of Service. Community and Professional Terms of Service
 * (https://edgeimpulse.com/legal/terms-of-service) or Enterprise Terms of
 * Service (https://edgeimpulse.com/legal/enterprise-terms-of-service),
 * according to your product plan subscription (the “License”).
 *
 * This software, documentation and other associated files (collectively referred
 * to as the “Software”) is a single SDK variation generated by the Edge Impulse
 * platform and requires an active paid Edge Impulse subscription to use this
 * Software for any purpose.
 *
 * You may NOT use this Software unless you have an active Edge Impulse subscription
 * that meets the eligibility requirements for the applicable License, subject to
 * your full and continued compliance with the terms and conditions of the License,
 * including without limitation any usage restrictions under the applicable License.
 *
 * If you do not have an active Edge Impulse product plan subscription, or if use
 * of this Software exceeds the usage limitations of your Edge Impulse product plan
 * subscription, you are not permitted to use this Software and must immediately
 * delete and erase all copies of this Software within your control or possession.
 * Edge Impulse reserves all rights and remedies available to enforce its rights.
 *
 * Unless required by applicable law or agreed to in writing, the Software is
 * distributed on an "AS IS" BASIS, WITHOUT WARRANTIES OR CONDITIONS OF ANY KIND,
 * either express or implied. See the License for the specific language governing
 * permissions, disclaimers and limitations under the License.
 */
// Generated on: 12.11.2025 08:18:21

#include <stdio.h>
#include <stdlib.h>
#include "edge-impulse-sdk/tensorflow/lite/c/builtin_op_data.h"
#include "edge-impulse-sdk/tensorflow/lite/c/common.h"
#include "edge-impulse-sdk/tensorflow/lite/micro/micro_mutable_op_resolver.h"
#include "edge-impulse-sdk/porting/ei_classifier_porting.h"

#if EI_CLASSIFIER_PRINT_STATE
#if defined(__cplusplus) && EI_C_LINKAGE == 1
extern "C" {
    extern void ei_printf(const char *format, ...);
}
#else
extern void ei_printf(const char *format, ...);
#endif
#endif

#define STRINGIZE(x) #x
#define STRINGIZE_VALUE_OF(x) STRINGIZE(x)

#if defined (__GNUC__)  /* GNU compiler */
#define ALIGN(X) __attribute__((aligned(X)))
#define DEFINE_SECTION(x) __attribute__((section(x)))
#elif defined (_MSC_VER)
#define ALIGN(X) __declspec(align(X))
#elif defined (__TASKING__) /* TASKING Compiler */
#define ALIGN(X) __align(X)
#define DEFINE_SECTION(x) __attribute__((section(x)))
#elif defined (__ARMCC_VERSION) /* Arm Compiler */
#define ALIGN(X) __ALIGNED(x)
#define DEFINE_SECTION(x) __attribute__((section(x)))
#elif defined (__ICCARM__) /* IAR Compiler */
#define ALIGN(x) __attribute__((aligned(x)))
#define DEFINE_SECTION(x) __attribute__((section(x)))
#elif defined (__clang__) /* LLVM/Clang Compiler */
#define ALIGN(X) __ALIGNED(x)
#define DEFINE_SECTION(x) __attribute__((section(x)))
#endif

#if defined(EI_MODEL_SECTION) && (defined(__GNUC__) || defined(__clang__))
#define MODEL_SECTION(X) __attribute__((section(STRINGIZE_VALUE_OF(X))))
#else
#define MODEL_SECTION(X)
#endif

#ifndef EI_MAX_SCRATCH_BUFFER_COUNT
#ifndef CONFIG_IDF_TARGET_ESP32S3
#define EI_MAX_SCRATCH_BUFFER_COUNT 4
#else
#define EI_MAX_SCRATCH_BUFFER_COUNT 4
#endif // CONFIG_IDF_TARGET_ESP32S3
#endif // EI_MAX_SCRATCH_BUFFER_COUNT

#ifndef EI_MAX_OVERFLOW_BUFFER_COUNT
#define EI_MAX_OVERFLOW_BUFFER_COUNT 10
#endif // EI_MAX_OVERFLOW_BUFFER_COUNT

using namespace tflite;
using namespace tflite::ops;
using namespace tflite::ops::micro;

namespace {

#if defined(EI_CLASSIFIER_ALLOCATION_STATIC_HIMAX) || defined(EI_CLASSIFIER_ALLOCATION_STATIC_HIMAX_GNU)
constexpr int kTensorArenaSize = 5488;
#else
constexpr int kTensorArenaSize = 4464;
#endif

#if defined(EI_CLASSIFIER_ALLOCATION_STATIC)
#if defined (EI_TENSOR_ARENA_LOCATION)
uint8_t tensor_arena[kTensorArenaSize] ALIGN(16) DEFINE_SECTION(STRINGIZE_VALUE_OF(EI_TENSOR_ARENA_LOCATION));
#else
uint8_t tensor_arena[kTensorArenaSize] ALIGN(16);
#endif
#elif defined(EI_CLASSIFIER_ALLOCATION_STATIC_HIMAX)
#pragma Bss(".tensor_arena")
uint8_t tensor_arena[kTensorArenaSize] ALIGN(16);
#pragma Bss()
#elif defined(EI_CLASSIFIER_ALLOCATION_STATIC_HIMAX_GNU)
uint8_t tensor_arena[kTensorArenaSize] ALIGN(16) __attribute__((section(".tensor_arena")));
#else
#define EI_CLASSIFIER_ALLOCATION_HEAP 1
uint8_t* tensor_arena = NULL;
#endif

static uint8_t* tensor_boundary;
static uint8_t* current_location;

template <int SZ, class T> struct TfArray {
  int sz; T elem[SZ];
};

enum used_operators_e {
  OP_RESHAPE, OP_CONV_2D, OP_MAX_POOL_2D, OP_DEPTHWISE_CONV_2D, OP_MUL, OP_ADD, OP_MEAN, OP_FULLY_CONNECTED, OP_LOGISTIC, OP_SOFTMAX,  OP_LAST
};

struct TensorInfo_t { // subset of TfLiteTensor used for initialization from constant memory
  TfLiteAllocationType allocation_type;
  TfLiteType type;
  void* data;
  TfLiteIntArray* dims;
  size_t bytes;
};

typedef struct {
  TfLiteTensor tensor;
  int16_t index;
} TfLiteTensorWithIndex;

typedef struct {
  TfLiteEvalTensor tensor;
  int16_t index;
} TfLiteEvalTensorWithIndex;

TfLiteContext ctx{};
static const int MAX_TFL_TENSOR_COUNT = 4;
static TfLiteTensorWithIndex tflTensors[MAX_TFL_TENSOR_COUNT];
static const int MAX_TFL_EVAL_COUNT = 4;
static TfLiteEvalTensorWithIndex tflEvalTensors[MAX_TFL_EVAL_COUNT];
TfLiteRegistration registrations[OP_LAST];

namespace g0 {
const TfArray<2, int> tensor_dimension0 = { 2, { 1,56 } };
const MODEL_SECTION(EI_MODEL_SECTION) ALIGN(16) float tensor_data1[8] = { -0.20366676151752472, -0.086456127464771271, 0.099527008831501007, 0.38938543200492859, -0.89760333299636841, 0.068130329251289368, -0.33981308341026306, 0.24603942036628723, };
const TfArray<1, int> tensor_dimension1 = { 1, { 8 } };
const MODEL_SECTION(EI_MODEL_SECTION) ALIGN(16) float tensor_data2[16] = { -0.0041698734275996685, -0.75644922256469727, 2.5626215934753418, 1.0160098075866699, 0.27612015604972839, 0.14941991865634918, 1.57895827293396, 0, 0.77743983268737793, -0.033386476337909698, 0.75881814956665039, 1.7580678462982178, 0, -0.0029241177253425121, -0.16189970076084137, 3.1549232006072998, };
const TfArray<1, int> tensor_dimension2 = { 1, { 16 } };
const MODEL_SECTION(EI_MODEL_SECTION) ALIGN(16) float tensor_data3[16] = { 0.23696719110012054, -1.4595906734466553, -1.0834985971450806, -0.99673259258270264, -0.69859111309051514, 0.11132964491844177, -0.13361373543739319, -0.15799787640571594, -0.14190046489238739, -0.078228205442428589, -0.8433220386505127, -0.1903802752494812, -0.62273991107940674, -0.11758262664079666, -0.71257907152175903, 0.18524068593978882, };
const MODEL_SECTION(EI_MODEL_SECTION) ALIGN(16) int32_t tensor_data4[4] = { 1, 1, 56, 1, };
const TfArray<1, int> tensor_dimension4 = { 1, { 4 } };
const MODEL_SECTION(EI_MODEL_SECTION) ALIGN(16) int32_t tensor_data5[4] = { 1, 56, 1, 8, };
const MODEL_SECTION(EI_MODEL_SECTION) ALIGN(16) int32_t tensor_data6[4] = { 1, 1, 28, 8, };
const MODEL_SECTION(EI_MODEL_SECTION) ALIGN(16) int32_t tensor_data7[4] = { 1, 28, 1, 16, };
const MODEL_SECTION(EI_MODEL_SECTION) ALIGN(16) int32_t tensor_data8[4] = { 1, 1, 14, 16, };
const MODEL_SECTION(EI_MODEL_SECTION) ALIGN(16) float tensor_data9[16] = { 0.10008358210325241, 0.12760992348194122, 0.39894455671310425, 1.3304418325424194, 0.06259116530418396, -0.15278501808643341, 0.39432951807975769, 0, -0.28608688712120056, -0.041008759289979935, 0.15834821760654449, 0.20275409519672394, 0, -0.040344059467315674, 1.2866179943084717, 0.32366883754730225, };
const MODEL_SECTION(EI_MODEL_SECTION) ALIGN(8) int32_t tensor_data10[3] = { 1, 14, 16, };
const TfArray<1, int> tensor_dimension10 = { 1, { 3 } };
const MODEL_SECTION(EI_MODEL_SECTION) ALIGN(16) float tensor_data11[8*1*5*1] = { 
  /* [0][0][][] */ -0.33403667807579041, 0.71899670362472534, -0.042566236108541489, -0.36569598317146301, -2.7709634304046631, 
  /* [1][0][][] */ -1.0447407960891724, -0.77896541357040405, -0.26771515607833862, 1.1872769594192505, -0.9064948558807373, 
  /* [2][0][][] */ 0.19453474879264832, 0.98661279678344727, -0.7421448826789856, 0.34070262312889099, -1.0350837707519531, 
  /* [3][0][][] */ -0.37790930271148682, -0.64574605226516724, 0.046013552695512772, -0.84068715572357178, 0.44697192311286926, 
  /* [4][0][][] */ 0.68527942895889282, -0.28042939305305481, -0.22805334627628326, 1.9537698030471802, -0.92920160293579102, 
  /* [5][0][][] */ -0.88842171430587769, 0.41132667660713196, -0.87188076972961426, 0.90339070558547974, 1.0645686388015747, 
  /* [6][0][][] */ 1.0194846391677856, 0.3937879204750061, 0.36150100827217102, 0.59489834308624268, -0.14976374804973602, 
  /* [7][0][][] */ 0.21288412809371948, -0.73564952611923218, 0.64379698038101196, 0.50287902355194092, 1.3126786947250366, 
};
const TfArray<4, int> tensor_dimension11 = { 4, { 8,1,5,1 } };
const MODEL_SECTION(EI_MODEL_SECTION) ALIGN(16) float tensor_data12[16*1*3*8] = { 
  /* [0][0][][] */ 0.31799617409706116,0.83082950115203857,0.11638690531253815,0.33017578721046448,-0.04210614413022995,-0.2397581934928894,0.46644729375839233,0.87039577960968018, -0.070272617042064667,-0.45417231321334839,0.12868590652942657,-0.1877802312374115,-1.8149709701538086,-1.5083180665969849,-0.7478364109992981,-2.3355882167816162, 0.10246355831623077,0.96968257427215576,-0.26978188753128052,-0.14202699065208435,-1.4971951246261597,-2.2231521606445312,-2.2981431484222412,-0.26689639687538147, 
  /* [1][0][][] */ 0.23840253055095673,-0.45661646127700806,0.26386851072311401,-0.68407154083251953,-0.46635636687278748,0.20006841421127319,2.0225832462310791,1.5037999153137207, -1.0809512138366699,-0.68836438655853271,-0.74597489833831787,-0.21282751858234406,0.2540421187877655,0.3559918999671936,0.42022049427032471,0.93391233682632446, 1.2712315320968628,1.0497808456420898,1.2076476812362671,0.084010601043701172,0.96582663059234619,0.079873904585838318,1.4347832202911377,1.3028409481048584, 
  /* [2][0][][] */ -0.7425498366355896,-0.12134600430727005,-0.10943470895290375,-0.74407237768173218,-0.99940061569213867,0.58125388622283936,-0.26899406313896179,-0.29421132802963257, 0.45408806204795837,-0.65521049499511719,0.46026694774627686,-0.42033183574676514,-1.8349120616912842,0.48396873474121094,-0.75721520185470581,0.099788635969161987, -4.6642556190490723,0.2184298187494278,-0.74406057596206665,-1.1653121709823608,0.051559396088123322,0.34406745433807373,-0.22760570049285889,-0.021893931552767754, 
  /* [3][0][][] */ 0.61132371425628662,0.043701883405447006,0.20484229922294617,0.67317479848861694,0.80517363548278809,-1.2243731021881104,-0.37585538625717163,-0.88211512565612793, 0.0017409891588613391,-1.0777647495269775,0.077216051518917084,0.76132267713546753,-0.82713931798934937,-0.11137174069881439,-1.5670156478881836,0.31845992803573608, -3.0172739028930664,-0.84773868322372437,-1.6273632049560547,-0.037115029990673065,-1.4907795190811157,-0.07133898138999939,0.056265871971845627,-0.073718667030334473, 
  /* [4][0][][] */ -0.99386823177337646,1.3336023092269897,-2.7246229648590088,-0.98667758703231812,-0.33809658885002136,-2.6225478649139404,-0.94361430406570435,-0.058767285197973251, -0.78307372331619263,-0.12978708744049072,0.41270789504051208,0.97503131628036499,-0.005044467281550169,0.57327526807785034,-0.73388886451721191,-0.71861344575881958, 0.55393338203430176,0.34825170040130615,0.85617858171463013,-1.5311099290847778,-0.97042012214660645,-0.27226006984710693,0.27241331338882446,0.29445701837539673, 
  /* [5][0][][] */ 0.011693538166582584,0.38165497779846191,0.24656271934509277,0.24020425975322723,-0.046026147902011871,-0.33188369870185852,-0.067536294460296631,0.33616712689399719, -0.14124375581741333,0.24118137359619141,0.02486027404665947,-0.0035736840218305588,0.065921276807785034,0.31257057189941406,-0.33979621529579163,0.010149708017706871, -0.15753906965255737,0.52136528491973877,0.11488664150238037,0.0095861805602908134,-0.16091357171535492,-0.023459929972887039,-0.37879398465156555,0.0048073232173919678, 
  /* [6][0][][] */ 0.22247360646724701,0.010700881481170654,-0.36786565184593201,0.76090866327285767,-0.51497077941894531,0.17142100632190704,0.91566574573516846,0.75613254308700562, 0.64799803495407104,0.15094143152236938,-1.0166721343994141,-0.16340894997119904,-0.44645708799362183,0.062774285674095154,-1.1237907409667969,0.90660643577575684, -1.5058131217956543,-1.3847841024398804,0.10785386711359024,0.067437872290611267,-2.0868792533874512,-1.341173529624939,-0.2845994234085083,-0.92500346899032593, 
  /* [7][0][][] */ -0.037133008241653442,0.23233377933502197,-0.004953235387802124,-0.28816470503807068,-0.23872818052768707,0.28161388635635376,0.24657243490219116,0.12016639113426208, 0.15479490160942078,0.22144407033920288,0.21219378709793091,0.26120418310165405,0.19059401750564575,0.21236127614974976,0.13375833630561829,0.16269436478614807, 0.04018557071685791,0.0076037049293518066,-0.17753767967224121,-0.047174379229545593,0.25342637300491333,0.092896193265914917,0.26317411661148071,0.082173466682434082, 
  /* [8][0][][] */ -0.055748388171195984,-2.144340991973877,0.44928205013275146,-0.57824116945266724,-3.86313796043396,0.72682088613510132,1.0775797367095947,-0.32869488000869751, -0.11195063591003418,-0.48374360799789429,-0.43279337882995605,-0.009450053796172142,-1.0729418992996216,-0.12625621259212494,0.11853513121604919,0.063106484711170197, -0.508961021900177,0.20373107492923737,-0.52396875619888306,0.0359543077647686,-1.7881916761398315,-2.253502368927002,-3.9220116138458252,-0.0099112465977668762, 
  /* [9][0][][] */ -0.0044025350362062454,-0.23756536841392517,0.35090267658233643,0.3577229380607605,-1.7136696577072144,0.11691111326217651,0.26070913672447205,0.88222146034240723, -1.7557039260864258,-0.27963706851005554,0.35970836877822876,-0.63601422309875488,-1.0855225324630737,-1.3502662181854248,0.44046851992607117,-0.00041499431245028973, 0.15115086734294891,1.76655113697052,-1.8859466314315796,0.15114456415176392,-5.1181888580322266,0.3307030200958252,-0.13398313522338867,0.23657979071140289, 
  /* [10][0][][] */ -0.41546878218650818,0.31395283341407776,0.60660701990127563,-0.83344978094100952,-1.4248843193054199,0.26933228969573975,0.2654438316822052,-1.3365731239318848, -0.42670312523841858,-0.67383933067321777,0.35797503590583801,-0.099628381431102753,-0.14895495772361755,0.28737467527389526,-0.65274906158447266,0.34557339549064636, -4.3502664566040039,-0.54510635137557983,-0.28949165344238281,0.67600482702255249,-2.2088758945465088,-0.26305264234542847,-0.18820035457611084,0.48624715209007263, 
  /* [11][0][][] */ -0.55895918607711792,0.72441500425338745,-0.19866825640201569,0.88617372512817383,0.33174443244934082,-0.19778087735176086,0.17512820661067963,0.30295279622077942, -0.5591663122177124,-1.0181220769882202,0.14780125021934509,0.10755715519189835,-3.7937374114990234,-0.53781580924987793,-0.73856353759765625,0.3123096227645874, -0.33981451392173767,-0.75363832712173462,-1.6668998003005981,0.21773858368396759,-2.0738134384155273,-0.44509130716323853,0.44859990477561951,0.24353472888469696, 
  /* [12][0][][] */ -0.23872494697570801,0.1353137195110321,-0.20928125083446503,0.28041762113571167,-0.08226582407951355,-0.028215289115905762,0.23440563678741455,-0.04970964789390564, 0.13412049412727356,-0.04361136257648468,-0.24059402942657471,-0.11713331937789917,-0.24777935445308685,0.16089972853660583,-0.23963791131973267,-0.095203027129173279, 0.15306615829467773,0.15028470754623413,0.18012097477912903,0.066291630268096924,0.12448829412460327,-0.2685970664024353,-0.15048450231552124,0.14764648675918579, 
  /* [13][0][][] */ -0.004157534334808588,-0.11622238159179688,-0.11057981848716736,-0.2401629239320755,-0.36643862724304199,0.023120451718568802,-0.17752948403358459,-0.25532504916191101, 0.054556902498006821,0.026726545765995979,-0.19595423340797424,-0.03480616956949234,-0.32072684168815613,-0.26844003796577454,-0.2554735541343689,-0.25534191727638245, -0.16411790251731873,-0.006982230581343174,0.21605299413204193,-0.060023237019777298,0.10670111328363419,-0.34438470005989075,-0.25222095847129822,0.027127675712108612, 
  /* [14][0][][] */ 0.46244075894355774,-0.34639215469360352,1.6436657905578613,-0.069178536534309387,-0.52671593427658081,-0.4459286630153656,1.5570557117462158,-1.0376805067062378, 0.83659255504608154,1.0759447813034058,-0.73402070999145508,0.6102834939956665,0.71743983030319214,0.025658577680587769,0.219028040766716,-0.048697847872972488, 0.1487300843000412,-1.0464783906936646,0.59363329410552979,-0.6998821496963501,0.50632250308990479,-0.5925823450088501,-0.0058123944327235222,-0.47009691596031189, 
  /* [15][0][][] */ -0.20975051820278168,0.12953957915306091,0.39295437932014465,-0.13882799446582794,-0.12580132484436035,0.36980158090591431,-0.11860322952270508,0.18585900962352753, -0.21888500452041626,-0.023905402049422264,-0.049566563218832016,0.64787369966506958,-0.93233722448348999,-0.34713095426559448,0.32891446352005005,0.53431141376495361, -1.0039103031158447,-0.55064523220062256,0.052661415189504623,-1.330602765083313,-1.1576801538467407,-1.5992815494537354,0.28654804825782776,0.74005550146102905, 
};
const TfArray<4, int> tensor_dimension12 = { 4, { 16,1,3,8 } };
const MODEL_SECTION(EI_MODEL_SECTION) ALIGN(16) float tensor_data13[1*1*3*16] = { 
  /* [0][0][][] */ 1.34526526927948,0.69819104671478271,-0.55232501029968262,1.275892972946167,2.5786449909210205,-0.14461246132850647,1.1152184009552002,-0.062074631452560425,0.76449894905090332,-1.0132478475570679,0.43477755784988403,0.072624102234840393,-0.11969946324825287,-0.35441428422927856,-0.61841565370559692,1.0224379301071167, 0.7005922794342041,-0.8892509937286377,-0.026875419542193413,1.0416326522827148,-0.30527296662330627,-0.38900083303451538,-0.4533134400844574,-0.1491725891828537,-2.1069269180297852,0.10281479358673096,0.7929341197013855,0.74619102478027344,-0.06499171257019043,0.037921696901321411,0.52778595685958862,1.0910602807998657, 0.67202109098434448,-1.3432228565216064,1.8712023496627808,-0.15792343020439148,0.46664351224899292,-0.050252381712198257,-0.88558804988861084,-0.32139366865158081,-0.22939488291740417,1.4917218685150146,1.3518480062484741,1.1297358274459839,-0.014511138200759888,0.024534398689866066,-0.74864310026168823,-0.2903001606464386, 
};
const TfArray<4, int> tensor_dimension13 = { 4, { 1,1,3,16 } };
const MODEL_SECTION(EI_MODEL_SECTION) ALIGN(16) float tensor_data14[16*1*1*16] = { 
  /* [0][0][][] */ -0.72715693712234497,0.57672017812728882,-0.54624342918395996,-0.78945481777191162,-1.2688736915588379,-0.23524895310401917,0.18853606283664703,-0.022236887365579605,-0.61619377136230469,-1.4791136980056763,-1.1789549589157104,0.8470461368560791,0.090420179069042206,-0.29271137714385986,-0.74680250883102417,-0.50512516498565674, 
  /* [1][0][][] */ -0.74025154113769531,-0.93513458967208862,-0.58004337549209595,-1.2578617334365845,-0.4053630530834198,-0.13527870178222656,0.2978670597076416,0.09932149201631546,-3.4019088745117188,-0.45693472027778625,-0.40573588013648987,-0.19294509291648865,0.21034571528434753,-0.15678274631500244,0.72789257764816284,-0.98045104742050171, 
  /* [2][0][][] */ -1.3500748872756958,-0.22427989542484283,-0.19139842689037323,-1.0852864980697632,0.35100555419921875,-0.19868528842926025,0.17488569021224976,-0.37154880166053772,-1.2197847366333008,-0.71647858619689941,0.98410731554031372,0.35499358177185059,-0.46460261940956116,-0.25014504790306091,-0.38767793774604797,-1.3791983127593994, 
  /* [3][0][][] */ 0.56450331211090088,-0.98298060894012451,-0.77465760707855225,0.23642909526824951,-0.17710725963115692,-0.22334215044975281,1.2233773469924927,-0.044660899788141251,0.47907277941703796,-0.31092706322669983,0.34485438466072083,1.4002408981323242,0.072322741150856018,-0.2416142076253891,0.35145777463912964,0.59283697605133057, 
  /* [4][0][][] */ -1.3979345560073853,-0.26323369145393372,0.62610834836959839,-0.16848528385162354,-0.99606937170028687,-0.1195998415350914,1.4351915121078491,0.12237311899662018,-0.79629123210906982,-0.29778924584388733,0.27792257070541382,-0.031669832766056061,0.051655616611242294,0.20805536210536957,-0.40508249402046204,-1.4008826017379761, 
  /* [5][0][][] */ -1.2296841144561768,-0.79647564888000488,0.57679122686386108,-1.4023318290710449,-0.33828559517860413,0.050249747931957245,1.1505571603775024,0.024277519434690475,-1.6288044452667236,-0.46507039666175842,0.20497357845306396,0.91247743368148804,0.074773743748664856,0.047730416059494019,-0.67594563961029053,-1.337004542350769, 
  /* [6][0][][] */ -0.6786121129989624,-0.78825527429580688,-0.20173035562038422,0.3198406994342804,-0.47358596324920654,-0.16356262564659119,-0.16761103272438049,0.31116843223571777,-0.67144513130187988,-0.98423540592193604,0.78645950555801392,-0.78558558225631714,0.26645037531852722,-0.13952919840812683,-1.015894889831543,-0.36436614394187927, 
  /* [7][0][][] */ -0.7083885669708252,-0.8995060920715332,0.70553934574127197,-0.55107778310775757,0.066917993128299713,-0.26294106245040894,-0.40817469358444214,-0.040041737258434296,-0.25414931774139404,-0.59800684452056885,0.55559247732162476,-0.98462545871734619,0.083047538995742798,-0.095573350787162781,-0.73322570323944092,-1.3425551652908325, 
  /* [8][0][][] */ 0.48422616720199585,-1.3124512434005737,-0.66545814275741577,0.41619381308555603,-0.23774635791778564,-0.20269887149333954,-0.039695866405963898,-0.023302923887968063,-1.5437818765640259,-0.56155633926391602,-0.56137377023696899,-1.0165668725967407,0.14828400313854218,-0.20450350642204285,-0.032984927296638489,-1.071607232093811, 
  /* [9][0][][] */ 0.252452552318573,-1.8152806758880615,-0.77572131156921387,-1.1696274280548096,1.5454916954040527,0.10290203988552094,1.0240144729614258,0.010416733101010323,-0.91768449544906616,0.89018028974533081,-0.95597755908966064,-0.22828249633312225,0.15158283710479736,-0.25177636742591858,-1.3753379583358765,-0.22697338461875916, 
  /* [10][0][][] */ 0.89601600170135498,-0.20968134701251984,-0.83585983514785767,-2.0795645713806152,0.55178588628768921,-0.50428342819213867,0.41671878099441528,0.0020102863200008869,-1.2154277563095093,0.50980287790298462,-0.13725726306438446,0.1172342374920845,0.066373191773891449,0.022809341549873352,-0.43265089392662048,-1.3234125375747681, 
  /* [11][0][][] */ 1.4264365434646606,-0.45724102854728699,-1.3738327026367188,-1.5590299367904663,0.39954659342765808,-0.16006134450435638,1.008287787437439,-0.032909959554672241,-1.3147792816162109,-0.50913214683532715,0.43510076403617859,1.0703557729721069,0.13303926587104797,-0.11364036798477173,-0.14429785311222076,-1.2141231298446655, 
  /* [12][0][][] */ -0.032209694385528564,0.91552954912185669,0.9773450493812561,-1.4532589912414551,-0.16419790685176849,-0.070578716695308685,1.3503023386001587,0.0058454177342355251,0.097266823053359985,0.54987388849258423,0.65563839673995972,-0.7665790319442749,-0.030786145478487015,-0.074057094752788544,-0.93439757823944092,0.26927340030670166, 
  /* [13][0][][] */ 0.43969550728797913,-0.72325485944747925,-1.174152135848999,-0.9062199592590332,-0.095587074756622314,-0.23490957915782928,-1.050721287727356,-0.02603982575237751,-0.35963797569274902,-0.42046526074409485,1.3139783143997192,-0.32736033201217651,0.16897152364253998,-0.38497349619865417,-0.54406160116195679,-1.0760048627853394, 
  /* [14][0][][] */ -0.80012375116348267,-1.011985182762146,0.81773817539215088,-0.0052881883457303047,-0.52600497007369995,-0.28274822235107422,0.41499537229537964,-0.083757422864437103,-0.96098786592483521,-0.52113944292068481,0.41868627071380615,-0.75958096981048584,0.29449841380119324,-0.64010632038116455,-0.83836281299591064,-1.0527633428573608, 
  /* [15][0][][] */ -0.77787047624588013,-0.54529279470443726,-0.74929124116897583,-0.28558188676834106,0.47342219948768616,0.32610210776329041,-0.89039462804794312,0.050154764205217361,-1.2460783720016479,-0.53890436887741089,0.80644094944000244,-0.98594528436660767,-0.082317173480987549,0.17194242775440216,-1.1821492910385132,-0.54897069931030273, 
};
const TfArray<4, int> tensor_dimension14 = { 4, { 16,1,1,16 } };
const MODEL_SECTION(EI_MODEL_SECTION) ALIGN(16) float tensor_data15[16] = { -1.5801999568939209, -0.21567553281784058, -1.5790557861328125, -2.0170207023620605, -0.56946015357971191, -0.02108328603208065, -1.7497434616088867, 0.0041178716346621513, -0.049132406711578369, -0.6860242486000061, -2.2881698608398438, -4.0869598388671875, 0.012028327211737633, -0.04084019735455513, -0.83234548568725586, -4.7914347648620605, };
const MODEL_SECTION(EI_MODEL_SECTION) ALIGN(16) float tensor_data16[16] = { 2.3233139514923096, 1.1371208429336548, 1.1447863578796387, 0.96974194049835205, 1.6362086534500122, 28.288656234741211, 1.4732969999313354, 31.622776031494141, 4.8356094360351562, 1.7363331317901611, 1.6448009014129639, 1.3372480869293213, 31.622776031494141, 30.43406867980957, 1.3850797414779663, 0.88863527774810791, };
const MODEL_SECTION(EI_MODEL_SECTION) ALIGN(8) float tensor_data17[2] = { -3.1356277465820312, 3.1356301307678223, };
const TfArray<1, int> tensor_dimension17 = { 1, { 2 } };
const MODEL_SECTION(EI_MODEL_SECTION) ALIGN(16) float tensor_data18[16] = { 0, 0.34881195425987244, -0.16138456761837006, -0.25732824206352234, 0.42038729786872864, -0.25755199790000916, -0.25659215450286865, -0.1758442223072052, 0.17306381464004517, -0.23137712478637695, 0.55597585439682007, -0.19325526058673859, 0.34241113066673279, 0.19838847219944, 0.23861916363239288, 0.2365686297416687, };
const MODEL_SECTION(EI_MODEL_SECTION) ALIGN(4) float tensor_data19[1] = { -0.48550593852996826, };
const TfArray<1, int> tensor_dimension19 = { 1, { 1 } };
const int32_t tensor_data20[1] = { 1 };
const int tensor_dimension20 = 0; /* empty TfLiteIntArray */
const MODEL_SECTION(EI_MODEL_SECTION) ALIGN(16) float tensor_data21[16*16] = { 
  -0.053424984216690063, -0.3382144570350647, 0.33963426947593689, -0.17019438743591309, -0.27127528190612793, 0.25923058390617371, -0.3410014808177948, -0.16573676466941833, -0.22510392963886261, -0.19709889590740204, -0.29606711864471436, -0.13450151681900024, -0.047517687082290649, -0.38777709007263184, -0.027475923299789429, 0.18078598380088806, 
  -0.71925151348114014, 0.76872503757476807, 0.65466374158859253, 0.85877859592437744, 0.43124651908874512, 0.51283317804336548, 0.077711209654808044, 0.3245709240436554, 0.063409812748432159, -1.4487147331237793, -0.45856413245201111, -0.027642842382192612, -0.57581037282943726, 0.15264828503131866, 0.62228566408157349, 0.90646231174468994, 
  -0.48353797197341919, -0.46472847461700439, -0.20734858512878418, -0.36182346940040588, -0.3277662992477417, 0.27826470136642456, 0.23164844512939453, -0.37419557571411133, -0.059408463537693024, -0.36995282769203186, 0.15083871781826019, -0.44515350461006165, 0.099212728440761566, -0.12413880974054337, -0.11763264983892441, 0.13808724284172058, 
  -0.31585541367530823, -0.48119646310806274, -0.53650474548339844, -0.35932701826095581, -0.60937148332595825, -0.26600044965744019, -0.52991020679473877, 0.17729537189006805, -0.27196040749549866, -0.096113279461860657, -0.63384765386581421, -0.19072018563747406, 0.042690485715866089, 0.10140056163072586, -0.38457626104354858, -0.049007739871740341, 
  0.32569333910942078, 1.2187778949737549, -0.85284000635147095, 0.07171032577753067, -1.8485989570617676, -2.2645723819732666, 0.35568323731422424, -1.6938939094543457, -1.1647690534591675, 0.58594971895217896, 1.038676381111145, 1.1948808431625366, 0.44114357233047485, -1.4843065738677979, 0.61481118202209473, -0.63833403587341309, 
  -0.046452105045318604, -0.2717767059803009, -0.57763171195983887, -0.4695570170879364, -0.59978210926055908, 0.049795974045991898, -0.1570848673582077, 0.036114819347858429, -0.096618890762329102, -0.24918548762798309, -0.34384104609489441, -0.33102148771286011, -0.34469699859619141, -0.33402612805366516, -0.46965229511260986, -0.48391878604888916, 
  -0.57989847660064697, -0.10216753929853439, 0.13640722632408142, 0.18667750060558319, 0.23876489698886871, 0.31304964423179626, -0.43414759635925293, 0.10580692440271378, -0.42376378178596497, -0.26983276009559631, 0.15639181435108185, -0.44157737493515015, -0.39202377200126648, -0.24038301408290863, -0.50368499755859375, -0.53304970264434814, 
  -0.26129332184791565, 0.050628907978534698, -0.48153015971183777, -0.13632293045520782, -0.56384354829788208, 0.065414845943450928, 0.17566947638988495, -0.18576586246490479, -0.35060355067253113, 0.10119970887899399, 0.096378400921821594, -0.49248930811882019, -0.27219727635383606, -0.44718277454376221, -0.346761554479599, -0.11731097102165222, 
  -0.3527776300907135, 0.84399938583374023, 1.0819393396377563, 0.92481148242950439, 0.50678819417953491, 0.80496853590011597, 0.46176284551620483, 0.026171058416366577, 0.5466492772102356, -0.79522281885147095, -0.31605660915374756, -1.1024330854415894, -0.86049586534500122, 0.15378572046756744, 0.25223651528358459, 0.85417008399963379, 
  -0.42693433165550232, -0.5285332202911377, 0.0079208007082343102, -0.0014039904344826937, -0.044174201786518097, 0.097298264503479004, -0.1041734591126442, -0.24297043681144714, 0.039278525859117508, -0.31055676937103271, -0.36466556787490845, -0.032760016620159149, -0.2969571053981781, 0.021652476862072945, -0.46508905291557312, -0.27960434556007385, 
  0.22178637981414795, 1.1028457880020142, -0.46598908305168152, -0.12512752413749695, -1.5234097242355347, -1.9694869518280029, 0.23691414296627045, -0.77105206251144409, -1.3793481588363647, 0.88961648941040039, 1.0124269723892212, 1.172974705696106, 0.26467719674110413, -1.4421753883361816, 0.61711734533309937, -0.54971373081207275, 
  -0.069481313228607178, 0.020883241668343544, -0.37626823782920837, -0.046856950968503952, -0.21551646292209625, -0.56314593553543091, 0.10374239087104797, -0.39513283967971802, 0.17157603800296783, -0.48638048768043518, 0.022827951237559319, -0.2585202157497406, -0.39293503761291504, -0.50491070747375488, -0.3335513174533844, -0.57963687181472778, 
  -1.1758836507797241, -0.11600503325462341, 1.9109667539596558, 0.65796893835067749, 1.1975326538085938, 0.13888527452945709, 0.070510417222976685, 0.5817338228225708, -0.17585928738117218, -1.4984259605407715, -1.0052410364151001, 0.064495228230953217, -0.87984687089920044, 0.33750176429748535, 1.1416836977005005, 0.4519268274307251, 
  -0.44862595200538635, 0.79421871900558472, 1.3425261974334717, 0.86306262016296387, 0.63774758577346802, 0.14153473079204559, 0.52253562211990356, 0.49600252509117126, 0.41384905576705933, -0.97309541702270508, -0.51468181610107422, -0.83798182010650635, -0.78379321098327637, 0.21931062638759613, 0.087099790573120117, 0.59791594743728638, 
  -1.1126331090927124, 1.7201757431030273, 1.224549412727356, 0.70544373989105225, 0.85049843788146973, 0.44198793172836304, 0.53027516603469849, 0.44193300604820251, 0.26311609148979187, -0.7624097466468811, -1.9947509765625, -0.34420290589332581, -0.21072672307491302, -0.76666170358657837, 1.0418369770050049, 0.093850806355476379, 
  -0.46881887316703796, 0.9031519889831543, 1.0616607666015625, 0.86300939321517944, 0.6754457950592041, 0.66434985399246216, 0.66855704784393311, 0.17231237888336182, 0.61266529560089111, -0.76203817129135132, -0.71350014209747314, -1.0901621580123901, -0.71938580274581909, 0.013436741195619106, 0.38172000646591187, 0.83088427782058716, 
};
const TfArray<2, int> tensor_dimension21 = { 2, { 16,16 } };
const MODEL_SECTION(EI_MODEL_SECTION) ALIGN(16) float tensor_data22[1*16] = { 
  -0.47368726134300232, 0.27118808031082153, -0.017487386241555214, 0.28459706902503967, -0.71249997615814209, -0.31677219271659851, 0.19028525054454803, -0.026745731011033058, 0.20887243747711182, -0.20728574693202972, -0.47929820418357849, 0.045091304928064346, 0.56603395938873291, 0.20672447979450226, 0.45760378241539001, 0.25653117895126343, 
};
const TfArray<2, int> tensor_dimension22 = { 2, { 1,16 } };
const MODEL_SECTION(EI_MODEL_SECTION) ALIGN(8) float tensor_data23[2*1] = { 
  6.5114073753356934, 
  -5.5332274436950684, 
};
const TfArray<2, int> tensor_dimension23 = { 2, { 2,1 } };
const TfArray<4, int> tensor_dimension24 = { 4, { 1,1,56,1 } };
const TfArray<4, int> tensor_dimension25 = { 4, { 1,1,56,8 } };
const TfArray<4, int> tensor_dimension26 = { 4, { 1,56,1,8 } };
const TfArray<4, int> tensor_dimension27 = { 4, { 1,28,1,8 } };
const TfArray<4, int> tensor_dimension28 = { 4, { 1,1,28,8 } };
const TfArray<4, int> tensor_dimension29 = { 4, { 1,1,28,16 } };
const TfArray<4, int> tensor_dimension30 = { 4, { 1,28,1,16 } };
const TfArray<4, int> tensor_dimension31 = { 4, { 1,14,1,16 } };
const TfArray<4, int> tensor_dimension32 = { 4, { 1,1,14,16 } };
const TfArray<3, int> tensor_dimension37 = { 3, { 1,14,16 } };
const TfArray<2, int> tensor_dimension40 = { 2, { 1,1 } };
const TfArray<2, int> tensor_dimension42 = { 2, { 1,2 } };
const TfLiteReshapeParams opdata0 = { { 0, 0, 0, 0, 0, 0, 0, 0, }, 0 };
const TfArray<2, int> inputs0 = { 2, { 0,4 } };
const TfArray<1, int> outputs0 = { 1, { 24 } };
const TfLiteConvParams opdata1 = { kTfLitePaddingSame, 1,1, kTfLiteActRelu, 1,1 };
const TfArray<3, int> inputs1 = { 3, { 24,11,1 } };
const TfArray<1, int> outputs1 = { 1, { 25 } };
const TfLiteReshapeParams opdata2 = { { 0, 0, 0, 0, 0, 0, 0, 0, }, 0 };
const TfArray<2, int> inputs2 = { 2, { 25,5 } };
const TfArray<1, int> outputs2 = { 1, { 26 } };
const TfLitePoolParams opdata3 = { kTfLitePaddingSame, 1,2, 1,2, kTfLiteActNone, { { 0,0, 0, 0 } } };
const TfArray<1, int> inputs3 = { 1, { 26 } };
const TfArray<1, int> outputs3 = { 1, { 27 } };
const TfLiteReshapeParams opdata4 = { { 0, 0, 0, 0, 0, 0, 0, 0, }, 0 };
const TfArray<2, int> inputs4 = { 2, { 27,6 } };
const TfArray<1, int> outputs4 = { 1, { 28 } };
const TfLiteConvParams opdata5 = { kTfLitePaddingSame, 1,1, kTfLiteActRelu, 1,1 };
const TfArray<3, int> inputs5 = { 3, { 28,12,2 } };
const TfArray<1, int> outputs5 = { 1, { 29 } };
const TfLiteReshapeParams opdata6 = { { 0, 0, 0, 0, 0, 0, 0, 0, }, 0 };
const TfArray<2, int> inputs6 = { 2, { 29,7 } };
const TfArray<1, int> outputs6 = { 1, { 30 } };
const TfLitePoolParams opdata7 = { kTfLitePaddingSame, 1,2, 1,2, kTfLiteActNone, { { 0,0, 0, 0 } } };
const TfArray<1, int> inputs7 = { 1, { 30 } };
const TfArray<1, int> outputs7 = { 1, { 31 } };
const TfLiteReshapeParams opdata8 = { { 0, 0, 0, 0, 0, 0, 0, 0, }, 0 };
const TfArray<2, int> inputs8 = { 2, { 31,8 } };
const TfArray<1, int> outputs8 = { 1, { 32 } };
const TfLiteDepthwiseConvParams opdata9 = { kTfLitePaddingSame, 1,1, 1, kTfLiteActRelu, 1,1 };
const TfArray<3, int> inputs9 = { 3, { 32,13,9 } };
const TfArray<1, int> outputs9 = { 1, { 33 } };
const TfLiteMulParams opdata10 = { kTfLiteActNone };
const TfArray<2, int> inputs10 = { 2, { 33,16 } };
const TfArray<1, int> outputs10 = { 1, { 34 } };
const TfLiteAddParams opdata11 = { kTfLiteActNone };
const TfArray<2, int> inputs11 = { 2, { 34,15 } };
const TfArray<1, int> outputs11 = { 1, { 35 } };
const TfLiteConvParams opdata12 = { kTfLitePaddingSame, 1,1, kTfLiteActRelu, 1,1 };
const TfArray<3, int> inputs12 = { 3, { 35,14,3 } };
const TfArray<1, int> outputs12 = { 1, { 36 } };
const TfLiteReshapeParams opdata13 = { { 0, 0, 0, 0, 0, 0, 0, 0, }, 0 };
const TfArray<2, int> inputs13 = { 2, { 36,10 } };
const TfArray<1, int> outputs13 = { 1, { 37 } };
const ALIGN(1) uint8_t opdata14[1] = { 0,  }; /* op type 40=MEAN */
const TfArray<2, int> inputs14 = { 2, { 37,20 } };
const TfArray<1, int> outputs14 = { 1, { 38 } };
const TfLiteFullyConnectedParams opdata15 = { kTfLiteActRelu, kTfLiteFullyConnectedWeightsFormatDefault, false, false };
const TfArray<3, int> inputs15 = { 3, { 38,21,18 } };
const TfArray<1, int> outputs15 = { 1, { 39 } };
const TfLiteFullyConnectedParams opdata16 = { kTfLiteActNone, kTfLiteFullyConnectedWeightsFormatDefault, false, false };
const TfArray<3, int> inputs16 = { 3, { 39,22,19 } };
const TfArray<1, int> outputs16 = { 1, { 40 } };
const TfArray<1, int> inputs17 = { 1, { 40 } };
const TfArray<1, int> outputs17 = { 1, { 41 } };
const TfLiteFullyConnectedParams opdata18 = { kTfLiteActNone, kTfLiteFullyConnectedWeightsFormatDefault, false, false };
const TfArray<3, int> inputs18 = { 3, { 41,23,17 } };
const TfArray<1, int> outputs18 = { 1, { 42 } };
const TfLiteSoftmaxParams opdata19 = { 1 };
const TfArray<1, int> inputs19 = { 1, { 42 } };
const TfArray<1, int> outputs19 = { 1, { 43 } };
};

TensorInfo_t tensorData[] = {
{ kTfLiteArenaRw, kTfLiteFloat32, (int32_t*)(tensor_arena + 224), (TfLiteIntArray*)&g0::tensor_dimension0, 224, },
{ kTfLiteMmapRo, kTfLiteFloat32, (int32_t*)g0::tensor_data1, (TfLiteIntArray*)&g0::tensor_dimension1, 32, },
{ kTfLiteMmapRo, kTfLiteFloat32, (int32_t*)g0::tensor_data2, (TfLiteIntArray*)&g0::tensor_dimension2, 64, },
{ kTfLiteMmapRo, kTfLiteFloat32, (int32_t*)g0::tensor_data3, (TfLiteIntArray*)&g0::tensor_dimension2, 64, },
{ kTfLiteMmapRo, kTfLiteInt32, (int32_t*)g0::tensor_data4, (TfLiteIntArray*)&g0::tensor_dimension4, 16, },
{ kTfLiteMmapRo, kTfLiteInt32, (int32_t*)g0::tensor_data5, (TfLiteIntArray*)&g0::tensor_dimension4, 16, },
{ kTfLiteMmapRo, kTfLiteInt32, (int32_t*)g0::tensor_data6, (TfLiteIntArray*)&g0::tensor_dimension4, 16, },
{ kTfLiteMmapRo, kTfLiteInt32, (int32_t*)g0::tensor_data7, (TfLiteIntArray*)&g0::tensor_dimension4, 16, },
{ kTfLiteMmapRo, kTfLiteInt32, (int32_t*)g0::tensor_data8, (TfLiteIntArray*)&g0::tensor_dimension4, 16, },
{ kTfLiteMmapRo, kTfLiteFloat32, (int32_t*)g0::tensor_data9, (TfLiteIntArray*)&g0::tensor_dimension2, 64, },
{ kTfLiteMmapRo, kTfLiteInt32, (int32_t*)g0::tensor_data10, (TfLiteIntArray*)&g0::tensor_dimension10, 12, },
{ kTfLiteMmapRo, kTfLiteFloat32, (int32_t*)g0::tensor_data11, (TfLiteIntArray*)&g0::tensor_dimension11, 160, },
{ kTfLiteMmapRo, kTfLiteFloat32, (int32_t*)g0::tensor_data12, (TfLiteIntArray*)&g0::tensor_dimension12, 1536, },
{ kTfLiteMmapRo, kTfLiteFloat32, (int32_t*)g0::tensor_data13, (TfLiteIntArray*)&g0::tensor_dimension13, 192, },
{ kTfLiteMmapRo, kTfLiteFloat32, (int32_t*)g0::tensor_data14, (TfLiteIntArray*)&g0::tensor_dimension14, 1024, },
{ kTfLiteMmapRo, kTfLiteFloat32, (int32_t*)g0::tensor_data15, (TfLiteIntArray*)&g0::tensor_dimension2, 64, },
{ kTfLiteMmapRo, kTfLiteFloat32, (int32_t*)g0::tensor_data16, (TfLiteIntArray*)&g0::tensor_dimension2, 64, },
{ kTfLiteMmapRo, kTfLiteFloat32, (int32_t*)g0::tensor_data17, (TfLiteIntArray*)&g0::tensor_dimension17, 8, },
{ kTfLiteMmapRo, kTfLiteFloat32, (int32_t*)g0::tensor_data18, (TfLiteIntArray*)&g0::tensor_dimension2, 64, },
{ kTfLiteMmapRo, kTfLiteFloat32, (int32_t*)g0::tensor_data19, (TfLiteIntArray*)&g0::tensor_dimension19, 4, },
{ kTfLiteMmapRo, kTfLiteInt32, (int32_t*)g0::tensor_data20, (TfLiteIntArray*)&g0::tensor_dimension20, 4, },
{ kTfLiteMmapRo, kTfLiteFloat32, (int32_t*)g0::tensor_data21, (TfLiteIntArray*)&g0::tensor_dimension21, 1024, },
{ kTfLiteMmapRo, kTfLiteFloat32, (int32_t*)g0::tensor_data22, (TfLiteIntArray*)&g0::tensor_dimension22, 64, },
{ kTfLiteMmapRo, kTfLiteFloat32, (int32_t*)g0::tensor_data23, (TfLiteIntArray*)&g0::tensor_dimension23, 8, },
{ kTfLiteArenaRw, kTfLiteFloat32, (int32_t*)(tensor_arena + 0), (TfLiteIntArray*)&g0::tensor_dimension24, 224, },
{ kTfLiteArenaRw, kTfLiteFloat32, (int32_t*)(tensor_arena + 1792), (TfLiteIntArray*)&g0::tensor_dimension25, 1792, },
{ kTfLiteArenaRw, kTfLiteFloat32, (int32_t*)(tensor_arena + 0), (TfLiteIntArray*)&g0::tensor_dimension26, 1792, },
{ kTfLiteArenaRw, kTfLiteFloat32, (int32_t*)(tensor_arena + 1792), (TfLiteIntArray*)&g0::tensor_dimension27, 896, },
{ kTfLiteArenaRw, kTfLiteFloat32, (int32_t*)(tensor_arena + 0), (TfLiteIntArray*)&g0::tensor_dimension28, 896, },
{ kTfLiteArenaRw, kTfLiteFloat32, (int32_t*)(tensor_arena + 1792), (TfLiteIntArray*)&g0::tensor_dimension29, 1792, },
{ kTfLiteArenaRw, kTfLiteFloat32, (int32_t*)(tensor_arena + 0), (TfLiteIntArray*)&g0::tensor_dimension30, 1792, },
{ kTfLiteArenaRw, kTfLiteFloat32, (int32_t*)(tensor_arena + 1792), (TfLiteIntArray*)&g0::tensor_dimension31, 896, },
{ kTfLiteArenaRw, kTfLiteFloat32, (int32_t*)(tensor_arena + 896), (TfLiteIntArray*)&g0::tensor_dimension32, 896, },
{ kTfLiteArenaRw, kTfLiteFloat32, (int32_t*)(tensor_arena + 0), (TfLiteIntArray*)&g0::tensor_dimension32, 896, },
{ kTfLiteArenaRw, kTfLiteFloat32, (int32_t*)(tensor_arena + 896), (TfLiteIntArray*)&g0::tensor_dimension32, 896, },
{ kTfLiteArenaRw, kTfLiteFloat32, (int32_t*)(tensor_arena + 0), (TfLiteIntArray*)&g0::tensor_dimension32, 896, },
{ kTfLiteArenaRw, kTfLiteFloat32, (int32_t*)(tensor_arena + 896), (TfLiteIntArray*)&g0::tensor_dimension32, 896, },
{ kTfLiteArenaRw, kTfLiteFloat32, (int32_t*)(tensor_arena + 0), (TfLiteIntArray*)&g0::tensor_dimension37, 896, },
{ kTfLiteArenaRw, kTfLiteFloat32, (int32_t*)(tensor_arena + 896), (TfLiteIntArray*)&g0::tensor_dimension22, 64, },
{ kTfLiteArenaRw, kTfLiteFloat32, (int32_t*)(tensor_arena + 0), (TfLiteIntArray*)&g0::tensor_dimension22, 64, },
{ kTfLiteArenaRw, kTfLiteFloat32, (int32_t*)(tensor_arena + 64), (TfLiteIntArray*)&g0::tensor_dimension40, 4, },
{ kTfLiteArenaRw, kTfLiteFloat32, (int32_t*)(tensor_arena + 0), (TfLiteIntArray*)&g0::tensor_dimension40, 4, },
{ kTfLiteArenaRw, kTfLiteFloat32, (int32_t*)(tensor_arena + 16), (TfLiteIntArray*)&g0::tensor_dimension42, 8, },
{ kTfLiteArenaRw, kTfLiteFloat32, (int32_t*)(tensor_arena + 0), (TfLiteIntArray*)&g0::tensor_dimension42, 8, },
};

#ifndef TF_LITE_STATIC_MEMORY
TfLiteNode tflNodes[20] = {
{ (TfLiteIntArray*)&g0::inputs0, (TfLiteIntArray*)&g0::outputs0, (TfLiteIntArray*)&g0::inputs0, nullptr, nullptr, const_cast<void*>(static_cast<const void*>(&g0::opdata0)), nullptr, 0, },
{ (TfLiteIntArray*)&g0::inputs1, (TfLiteIntArray*)&g0::outputs1, (TfLiteIntArray*)&g0::inputs1, nullptr, nullptr, const_cast<void*>(static_cast<const void*>(&g0::opdata1)), nullptr, 0, },
{ (TfLiteIntArray*)&g0::inputs2, (TfLiteIntArray*)&g0::outputs2, (TfLiteIntArray*)&g0::inputs2, nullptr, nullptr, const_cast<void*>(static_cast<const void*>(&g0::opdata2)), nullptr, 0, },
{ (TfLiteIntArray*)&g0::inputs3, (TfLiteIntArray*)&g0::outputs3, (TfLiteIntArray*)&g0::inputs3, nullptr, nullptr, const_cast<void*>(static_cast<const void*>(&g0::opdata3)), nullptr, 0, },
{ (TfLiteIntArray*)&g0::inputs4, (TfLiteIntArray*)&g0::outputs4, (TfLiteIntArray*)&g0::inputs4, nullptr, nullptr, const_cast<void*>(static_cast<const void*>(&g0::opdata4)), nullptr, 0, },
{ (TfLiteIntArray*)&g0::inputs5, (TfLiteIntArray*)&g0::outputs5, (TfLiteIntArray*)&g0::inputs5, nullptr, nullptr, const_cast<void*>(static_cast<const void*>(&g0::opdata5)), nullptr, 0, },
{ (TfLiteIntArray*)&g0::inputs6, (TfLiteIntArray*)&g0::outputs6, (TfLiteIntArray*)&g0::inputs6, nullptr, nullptr, const_cast<void*>(static_cast<const void*>(&g0::opdata6)), nullptr, 0, },
{ (TfLiteIntArray*)&g0::inputs7, (TfLiteIntArray*)&g0::outputs7, (TfLiteIntArray*)&g0::inputs7, nullptr, nullptr, const_cast<void*>(static_cast<const void*>(&g0::opdata7)), nullptr, 0, },
{ (TfLiteIntArray*)&g0::inputs8, (TfLiteIntArray*)&g0::outputs8, (TfLiteIntArray*)&g0::inputs8, nullptr, nullptr, const_cast<void*>(static_cast<const void*>(&g0::opdata8)), nullptr, 0, },
{ (TfLiteIntArray*)&g0::inputs9, (TfLiteIntArray*)&g0::outputs9, (TfLiteIntArray*)&g0::inputs9, nullptr, nullptr, const_cast<void*>(static_cast<const void*>(&g0::opdata9)), nullptr, 0, },
{ (TfLiteIntArray*)&g0::inputs10, (TfLiteIntArray*)&g0::outputs10, (TfLiteIntArray*)&g0::inputs10, nullptr, nullptr, const_cast<void*>(static_cast<const void*>(&g0::opdata10)), nullptr, 0, },
{ (TfLiteIntArray*)&g0::inputs11, (TfLiteIntArray*)&g0::outputs11, (TfLiteIntArray*)&g0::inputs11, nullptr, nullptr, const_cast<void*>(static_cast<const void*>(&g0::opdata11)), nullptr, 0, },
{ (TfLiteIntArray*)&g0::inputs12, (TfLiteIntArray*)&g0::outputs12, (TfLiteIntArray*)&g0::inputs12, nullptr, nullptr, const_cast<void*>(static_cast<const void*>(&g0::opdata12)), nullptr, 0, },
{ (TfLiteIntArray*)&g0::inputs13, (TfLiteIntArray*)&g0::outputs13, (TfLiteIntArray*)&g0::inputs13, nullptr, nullptr, const_cast<void*>(static_cast<const void*>(&g0::opdata13)), nullptr, 0, },
{ (TfLiteIntArray*)&g0::inputs14, (TfLiteIntArray*)&g0::outputs14, (TfLiteIntArray*)&g0::inputs14, nullptr, nullptr, const_cast<void*>(static_cast<const void*>(&g0::opdata14)), nullptr, 0, },
{ (TfLiteIntArray*)&g0::inputs15, (TfLiteIntArray*)&g0::outputs15, (TfLiteIntArray*)&g0::inputs15, nullptr, nullptr, const_cast<void*>(static_cast<const void*>(&g0::opdata15)), nullptr, 0, },
{ (TfLiteIntArray*)&g0::inputs16, (TfLiteIntArray*)&g0::outputs16, (TfLiteIntArray*)&g0::inputs16, nullptr, nullptr, const_cast<void*>(static_cast<const void*>(&g0::opdata16)), nullptr, 0, },
{ (TfLiteIntArray*)&g0::inputs17, (TfLiteIntArray*)&g0::outputs17, (TfLiteIntArray*)&g0::inputs17, nullptr, nullptr, nullptr, nullptr, 0, },
{ (TfLiteIntArray*)&g0::inputs18, (TfLiteIntArray*)&g0::outputs18, (TfLiteIntArray*)&g0::inputs18, nullptr, nullptr, const_cast<void*>(static_cast<const void*>(&g0::opdata18)), nullptr, 0, },
{ (TfLiteIntArray*)&g0::inputs19, (TfLiteIntArray*)&g0::outputs19, (TfLiteIntArray*)&g0::inputs19, nullptr, nullptr, const_cast<void*>(static_cast<const void*>(&g0::opdata19)), nullptr, 0, },
};
#else
TfLiteNode tflNodes[20] = {
{ (TfLiteIntArray*)&g0::inputs0, (TfLiteIntArray*)&g0::outputs0, (TfLiteIntArray*)&g0::inputs0, nullptr, const_cast<void*>(static_cast<const void*>(&g0::opdata0)), nullptr, 0, },
{ (TfLiteIntArray*)&g0::inputs1, (TfLiteIntArray*)&g0::outputs1, (TfLiteIntArray*)&g0::inputs1, nullptr, const_cast<void*>(static_cast<const void*>(&g0::opdata1)), nullptr, 0, },
{ (TfLiteIntArray*)&g0::inputs2, (TfLiteIntArray*)&g0::outputs2, (TfLiteIntArray*)&g0::inputs2, nullptr, const_cast<void*>(static_cast<const void*>(&g0::opdata2)), nullptr, 0, },
{ (TfLiteIntArray*)&g0::inputs3, (TfLiteIntArray*)&g0::outputs3, (TfLiteIntArray*)&g0::inputs3, nullptr, const_cast<void*>(static_cast<const void*>(&g0::opdata3)), nullptr, 0, },
{ (TfLiteIntArray*)&g0::inputs4, (TfLiteIntArray*)&g0::outputs4, (TfLiteIntArray*)&g0::inputs4, nullptr, const_cast<void*>(static_cast<const void*>(&g0::opdata4)), nullptr, 0, },
{ (TfLiteIntArray*)&g0::inputs5, (TfLiteIntArray*)&g0::outputs5, (TfLiteIntArray*)&g0::inputs5, nullptr, const_cast<void*>(static_cast<const void*>(&g0::opdata5)), nullptr, 0, },
{ (TfLiteIntArray*)&g0::inputs6, (TfLiteIntArray*)&g0::outputs6, (TfLiteIntArray*)&g0::inputs6, nullptr, const_cast<void*>(static_cast<const void*>(&g0::opdata6)), nullptr, 0, },
{ (TfLiteIntArray*)&g0::inputs7, (TfLiteIntArray*)&g0::outputs7, (TfLiteIntArray*)&g0::inputs7, nullptr, const_cast<void*>(static_cast<const void*>(&g0::opdata7)), nullptr, 0, },
{ (TfLiteIntArray*)&g0::inputs8, (TfLiteIntArray*)&g0::outputs8, (TfLiteIntArray*)&g0::inputs8, nullptr, const_cast<void*>(static_cast<const void*>(&g0::opdata8)), nullptr, 0, },
{ (TfLiteIntArray*)&g0::inputs9, (TfLiteIntArray*)&g0::outputs9, (TfLiteIntArray*)&g0::inputs9, nullptr, const_cast<void*>(static_cast<const void*>(&g0::opdata9)), nullptr, 0, },
{ (TfLiteIntArray*)&g0::inputs10, (TfLiteIntArray*)&g0::outputs10, (TfLiteIntArray*)&g0::inputs10, nullptr, const_cast<void*>(static_cast<const void*>(&g0::opdata10)), nullptr, 0, },
{ (TfLiteIntArray*)&g0::inputs11, (TfLiteIntArray*)&g0::outputs11, (TfLiteIntArray*)&g0::inputs11, nullptr, const_cast<void*>(static_cast<const void*>(&g0::opdata11)), nullptr, 0, },
{ (TfLiteIntArray*)&g0::inputs12, (TfLiteIntArray*)&g0::outputs12, (TfLiteIntArray*)&g0::inputs12, nullptr, const_cast<void*>(static_cast<const void*>(&g0::opdata12)), nullptr, 0, },
{ (TfLiteIntArray*)&g0::inputs13, (TfLiteIntArray*)&g0::outputs13, (TfLiteIntArray*)&g0::inputs13, nullptr, const_cast<void*>(static_cast<const void*>(&g0::opdata13)), nullptr, 0, },
{ (TfLiteIntArray*)&g0::inputs14, (TfLiteIntArray*)&g0::outputs14, (TfLiteIntArray*)&g0::inputs14, nullptr, const_cast<void*>(static_cast<const void*>(&g0::opdata14)), nullptr, 0, },
{ (TfLiteIntArray*)&g0::inputs15, (TfLiteIntArray*)&g0::outputs15, (TfLiteIntArray*)&g0::inputs15, nullptr, const_cast<void*>(static_cast<const void*>(&g0::opdata15)), nullptr, 0, },
{ (TfLiteIntArray*)&g0::inputs16, (TfLiteIntArray*)&g0::outputs16, (TfLiteIntArray*)&g0::inputs16, nullptr, const_cast<void*>(static_cast<const void*>(&g0::opdata16)), nullptr, 0, },
{ (TfLiteIntArray*)&g0::inputs17, (TfLiteIntArray*)&g0::outputs17, (TfLiteIntArray*)&g0::inputs17, nullptr, nullptr, nullptr, 0, },
{ (TfLiteIntArray*)&g0::inputs18, (TfLiteIntArray*)&g0::outputs18, (TfLiteIntArray*)&g0::inputs18, nullptr, const_cast<void*>(static_cast<const void*>(&g0::opdata18)), nullptr, 0, },
{ (TfLiteIntArray*)&g0::inputs19, (TfLiteIntArray*)&g0::outputs19, (TfLiteIntArray*)&g0::inputs19, nullptr, const_cast<void*>(static_cast<const void*>(&g0::opdata19)), nullptr, 0, },
};
#endif

used_operators_e used_ops[] =
{OP_RESHAPE, OP_CONV_2D, OP_RESHAPE, OP_MAX_POOL_2D, OP_RESHAPE, OP_CONV_2D, OP_RESHAPE, OP_MAX_POOL_2D, OP_RESHAPE, OP_DEPTHWISE_CONV_2D, OP_MUL, OP_ADD, OP_CONV_2D, OP_RESHAPE, OP_MEAN, OP_FULLY_CONNECTED, OP_FULLY_CONNECTED, OP_LOGISTIC, OP_FULLY_CONNECTED, OP_SOFTMAX, };


// Indices into tflTensors and tflNodes for subgraphs
const size_t tflTensors_subgraph_index[] = {0, 44, };
const size_t tflNodes_subgraph_index[] = {0, 20, };

// Input/output tensors
static const int in_tensor_indices[] = {
  0, 
};

static const int out_tensor_indices[] = {
  43, 
};


size_t current_subgraph_index = 0;

static void init_tflite_tensor(size_t i, TfLiteTensor *tensor) {
  tensor->type = tensorData[i].type;
  tensor->is_variable = false;

#if defined(EI_CLASSIFIER_ALLOCATION_HEAP)
  tensor->allocation_type = tensorData[i].allocation_type;
#else
  tensor->allocation_type = (tensor_arena <= tensorData[i].data && tensorData[i].data < tensor_arena + kTensorArenaSize) ? kTfLiteArenaRw : kTfLiteMmapRo;
#endif
  tensor->bytes = tensorData[i].bytes;
  tensor->dims = tensorData[i].dims;

#if defined(EI_CLASSIFIER_ALLOCATION_HEAP)
  if(tensor->allocation_type == kTfLiteArenaRw){
    uint8_t* start = (uint8_t*) ((uintptr_t)tensorData[i].data + (uintptr_t) tensor_arena);

    tensor->data.data =  start;
  }
  else {
      tensor->data.data = tensorData[i].data;
  }
#else
  tensor->data.data = tensorData[i].data;
#endif // EI_CLASSIFIER_ALLOCATION_HEAP
  tensor->quantization.type = kTfLiteNoQuantization;

}

static void init_tflite_eval_tensor(int i, TfLiteEvalTensor *tensor) {

  tensor->type = tensorData[i].type;

  tensor->dims = tensorData[i].dims;

#if defined(EI_CLASSIFIER_ALLOCATION_HEAP)
  auto allocation_type = tensorData[i].allocation_type;
  if(allocation_type == kTfLiteArenaRw) {
    uint8_t* start = (uint8_t*) ((uintptr_t)tensorData[i].data + (uintptr_t) tensor_arena);

    tensor->data.data =  start;
  }
  else {
    tensor->data.data = tensorData[i].data;
  }
#else
  tensor->data.data = tensorData[i].data;
#endif // EI_CLASSIFIER_ALLOCATION_HEAP
}

static void* overflow_buffers[EI_MAX_OVERFLOW_BUFFER_COUNT];
static size_t overflow_buffers_ix = 0;
static void * AllocatePersistentBufferImpl(struct TfLiteContext* ctx,
                                       size_t bytes) {
  void *ptr;
  uint32_t align_bytes = (bytes % 16) ? 16 - (bytes % 16) : 0;

  if (current_location - (bytes + align_bytes) < tensor_boundary) {
    if (overflow_buffers_ix > EI_MAX_OVERFLOW_BUFFER_COUNT - 1) {
      ei_printf("ERR: Failed to allocate persistent buffer of size %d, does not fit in tensor arena and reached EI_MAX_OVERFLOW_BUFFER_COUNT\n",
        (int)bytes);
      return NULL;
    }

    // OK, this will look super weird, but.... we have CMSIS-NN buffers which
    // we cannot calculate beforehand easily.
    ptr = ei_calloc(bytes, 1);
    if (ptr == NULL) {
      ei_printf("ERR: Failed to allocate persistent buffer of size %d\n", (int)bytes);
      return NULL;
    }
    overflow_buffers[overflow_buffers_ix++] = ptr;
    return ptr;
  }

  current_location -= bytes;

  // align to the left aligned boundary of 16 bytes
  current_location -= 15; // for alignment
  current_location += 16 - ((uintptr_t)(current_location) & 15);

  ptr = current_location;
  memset(ptr, 0, bytes);

  return ptr;
}

typedef struct {
  size_t bytes;
  void *ptr;
} scratch_buffer_t;

static scratch_buffer_t scratch_buffers[EI_MAX_SCRATCH_BUFFER_COUNT];
static size_t scratch_buffers_ix = 0;

static TfLiteStatus RequestScratchBufferInArenaImpl(struct TfLiteContext* ctx, size_t bytes,
                                                int* buffer_idx) {
  if (scratch_buffers_ix > EI_MAX_SCRATCH_BUFFER_COUNT - 1) {
    ei_printf("ERR: Failed to allocate scratch buffer of size %d, reached EI_MAX_SCRATCH_BUFFER_COUNT\n",
      (int)bytes);
    return kTfLiteError;
  }

  scratch_buffer_t b;
  b.bytes = bytes;

  b.ptr = AllocatePersistentBufferImpl(ctx, b.bytes);
  if (!b.ptr) {
    ei_printf("ERR: Failed to allocate scratch buffer of size %d\n",
      (int)bytes);
    return kTfLiteError;
  }

  scratch_buffers[scratch_buffers_ix] = b;
  *buffer_idx = scratch_buffers_ix;

  scratch_buffers_ix++;

  return kTfLiteOk;
}

static void* GetScratchBufferImpl(struct TfLiteContext* ctx, int buffer_idx) {
  if (buffer_idx > (int)scratch_buffers_ix) {
    return NULL;
  }
  return scratch_buffers[buffer_idx].ptr;
}

static const uint16_t TENSOR_IX_UNUSED = 0x7FFF;

static void ResetTensors() {
  for (size_t ix = 0; ix < MAX_TFL_TENSOR_COUNT; ix++) {
    tflTensors[ix].index = TENSOR_IX_UNUSED;
  }
  for (size_t ix = 0; ix < MAX_TFL_EVAL_COUNT; ix++) {
    tflEvalTensors[ix].index = TENSOR_IX_UNUSED;
  }
}

static TfLiteTensor* GetTensorImpl(const struct TfLiteContext* context,
                               int tensor_idx) {

  tensor_idx = tflTensors_subgraph_index[current_subgraph_index] + tensor_idx;

  for (size_t ix = 0; ix < MAX_TFL_TENSOR_COUNT; ix++) {
    // already used? OK!
    if (tflTensors[ix].index == tensor_idx) {
      return &tflTensors[ix].tensor;
    }
    // passed all the ones we've used, so end of the list?
    if (tflTensors[ix].index == TENSOR_IX_UNUSED) {
      // init the tensor
      init_tflite_tensor(tensor_idx, &tflTensors[ix].tensor);
      tflTensors[ix].index = tensor_idx;
      return &tflTensors[ix].tensor;
    }
  }

  ei_printf("ERR: GetTensor called beyond MAX_TFL_TENSOR_COUNT (%d)\n", MAX_TFL_TENSOR_COUNT);
  return nullptr;
}

static TfLiteEvalTensor* GetEvalTensorImpl(const struct TfLiteContext* context,
                                       int tensor_idx) {

  tensor_idx = tflTensors_subgraph_index[current_subgraph_index] + tensor_idx;

  for (size_t ix = 0; ix < MAX_TFL_EVAL_COUNT; ix++) {
    // already used? OK!
    if (tflEvalTensors[ix].index == tensor_idx) {
      return &tflEvalTensors[ix].tensor;
    }
    // passed all the ones we've used, so end of the list?
    if (tflEvalTensors[ix].index == TENSOR_IX_UNUSED) {
      // init the tensor
      init_tflite_eval_tensor(tensor_idx, &tflEvalTensors[ix].tensor);
      tflEvalTensors[ix].index = tensor_idx;
      return &tflEvalTensors[ix].tensor;
    }
  }

  ei_printf("ERR: GetTensor called beyond MAX_TFL_EVAL_COUNT (%d)\n", (int)MAX_TFL_EVAL_COUNT);
  return nullptr;
}

class EonMicroContext : public MicroContext {
 public:
 
  EonMicroContext(): MicroContext(nullptr, nullptr, nullptr) { }

  void* AllocatePersistentBuffer(size_t bytes) {
    return AllocatePersistentBufferImpl(nullptr, bytes);
  }

  TfLiteStatus RequestScratchBufferInArena(size_t bytes,
                                           int* buffer_index) {
  return RequestScratchBufferInArenaImpl(nullptr, bytes, buffer_index);
  }

  void* GetScratchBuffer(int buffer_index) {
    return GetScratchBufferImpl(nullptr, buffer_index);
  }
 
  TfLiteTensor* AllocateTempTfLiteTensor(int tensor_index) {
    return GetTensorImpl(nullptr, tensor_index);
  }

  void DeallocateTempTfLiteTensor(TfLiteTensor* tensor) {
    return;
  }

  bool IsAllTempTfLiteTensorDeallocated() {
    return true;
  }

  TfLiteEvalTensor* GetEvalTensor(int tensor_index) {
    return GetEvalTensorImpl(nullptr, tensor_index);
  }

};


} // namespace

TfLiteStatus tflite_learn_815551_95_init( void*(*alloc_fnc)(size_t,size_t) ) {
#ifdef EI_CLASSIFIER_ALLOCATION_HEAP
  tensor_arena = (uint8_t*) alloc_fnc(16, kTensorArenaSize);
  if (!tensor_arena) {
    ei_printf("ERR: failed to allocate tensor arena\n");
    return kTfLiteError;
  }
#else
  memset(tensor_arena, 0, kTensorArenaSize);
#endif
  tensor_boundary = tensor_arena;
  current_location = tensor_arena + kTensorArenaSize;

  EonMicroContext micro_context_;
  
  // Set microcontext as the context ptr
  ctx.impl_ = static_cast<void*>(&micro_context_);
  // Setup tflitecontext functions
  ctx.AllocatePersistentBuffer = &AllocatePersistentBufferImpl;
  ctx.RequestScratchBufferInArena = &RequestScratchBufferInArenaImpl;
  ctx.GetScratchBuffer = &GetScratchBufferImpl;
  ctx.GetTensor = &GetTensorImpl;
  ctx.GetEvalTensor = &GetEvalTensorImpl;
  ctx.ReportError = &MicroContextReportOpError;

  ctx.tensors_size = 44;
  for (size_t i = 0; i < 44; ++i) {
    TfLiteTensor tensor;
    init_tflite_tensor(i, &tensor);
    if (tensor.allocation_type == kTfLiteArenaRw) {
      auto data_end_ptr = (uint8_t*)tensor.data.data + tensorData[i].bytes;
      if (data_end_ptr > tensor_boundary) {
        tensor_boundary = data_end_ptr;
      }
    }
  }

  if (tensor_boundary > current_location /* end of arena size */) {
    ei_printf("ERR: tensor arena is too small, does not fit model - even without scratch buffers\n");
    return kTfLiteError;
  }

  registrations[OP_RESHAPE] = Register_RESHAPE();
  registrations[OP_CONV_2D] = Register_CONV_2D();
  registrations[OP_MAX_POOL_2D] = Register_MAX_POOL_2D();
  registrations[OP_DEPTHWISE_CONV_2D] = Register_DEPTHWISE_CONV_2D();
  registrations[OP_MUL] = Register_MUL();
  registrations[OP_ADD] = Register_ADD();
  registrations[OP_MEAN] = Register_MEAN();
  registrations[OP_FULLY_CONNECTED] = Register_FULLY_CONNECTED();
  registrations[OP_LOGISTIC] = Register_LOGISTIC();
  registrations[OP_SOFTMAX] = Register_SOFTMAX();

  for (size_t g = 0; g < 1; ++g) {
    current_subgraph_index = g;
    for(size_t i = tflNodes_subgraph_index[g]; i < tflNodes_subgraph_index[g+1]; ++i) {
      if (registrations[used_ops[i]].init) {
        tflNodes[i].user_data = registrations[used_ops[i]].init(&ctx, (const char*)tflNodes[i].builtin_data, 0);
      }
    }
  }
  current_subgraph_index = 0;

  for(size_t g = 0; g < 1; ++g) {
    current_subgraph_index = g;
    for(size_t i = tflNodes_subgraph_index[g]; i < tflNodes_subgraph_index[g+1]; ++i) {
      if (registrations[used_ops[i]].prepare) {
        ResetTensors();
        TfLiteStatus status = registrations[used_ops[i]].prepare(&ctx, &tflNodes[i]);
        if (status != kTfLiteOk) {
          return status;
        }
      }
    }
  }
  current_subgraph_index = 0;

  return kTfLiteOk;
}

TfLiteStatus tflite_learn_815551_95_input(int index, TfLiteTensor *tensor) {
  init_tflite_tensor(in_tensor_indices[index], tensor);
  return kTfLiteOk;
}

TfLiteStatus tflite_learn_815551_95_output(int index, TfLiteTensor *tensor) {
  init_tflite_tensor(out_tensor_indices[index], tensor);
  return kTfLiteOk;
}

TfLiteStatus tflite_learn_815551_95_invoke() {
  for (size_t i = 0; i < 20; ++i) {
    ResetTensors();

    TfLiteStatus status = registrations[used_ops[i]].invoke(&ctx, &tflNodes[i]);

#if EI_CLASSIFIER_PRINT_STATE
    ei_printf("layer %lu\n", i);
    ei_printf("    inputs:\n");
    for (size_t ix = 0; ix < tflNodes[i].inputs->size; ix++) {
      auto d = tensorData[tflNodes[i].inputs->data[ix]];

      size_t data_ptr = (size_t)d.data;

      if (d.allocation_type == kTfLiteArenaRw) {
        data_ptr = (size_t)tensor_arena + data_ptr;
      }

      if (d.type == TfLiteType::kTfLiteInt8) {
        int8_t* data = (int8_t*)data_ptr;
        ei_printf("        %lu (%zu bytes, ptr=%p, alloc_type=%d, type=%d): ", ix, d.bytes, data, (int)d.allocation_type, (int)d.type);
        for (size_t jx = 0; jx < d.bytes; jx++) {
          ei_printf("%d ", data[jx]);
        }
      }
      else {
        float* data = (float*)data_ptr;
        ei_printf("        %lu (%zu bytes, ptr=%p, alloc_type=%d, type=%d): ", ix, d.bytes, data, (int)d.allocation_type, (int)d.type);
        for (size_t jx = 0; jx < d.bytes / 4; jx++) {
          ei_printf("%f ", data[jx]);
        }
      }
      ei_printf("\n");
    }
    ei_printf("\n");

    ei_printf("    outputs:\n");
    for (size_t ix = 0; ix < tflNodes[i].outputs->size; ix++) {
      auto d = tensorData[tflNodes[i].outputs->data[ix]];

      size_t data_ptr = (size_t)d.data;

      if (d.allocation_type == kTfLiteArenaRw) {
        data_ptr = (size_t)tensor_arena + data_ptr;
      }

      if (d.type == TfLiteType::kTfLiteInt8) {
        int8_t* data = (int8_t*)data_ptr;
        ei_printf("        %lu (%zu bytes, ptr=%p, alloc_type=%d, type=%d): ", ix, d.bytes, data, (int)d.allocation_type, (int)d.type);
        for (size_t jx = 0; jx < d.bytes; jx++) {
          ei_printf("%d ", data[jx]);
        }
      }
      else {
        float* data = (float*)data_ptr;
        ei_printf("        %lu (%zu bytes, ptr=%p, alloc_type=%d, type=%d): ", ix, d.bytes, data, (int)d.allocation_type, (int)d.type);
        for (size_t jx = 0; jx < d.bytes / 4; jx++) {
          ei_printf("%f ", data[jx]);
        }
      }
      ei_printf("\n");
    }
    ei_printf("\n");
#endif // EI_CLASSIFIER_PRINT_STATE

    if (status != kTfLiteOk) {
      return status;
    }
  }
  return kTfLiteOk;
}

TfLiteStatus tflite_learn_815551_95_reset( void (*free_fnc)(void* ptr) ) {
#ifdef EI_CLASSIFIER_ALLOCATION_HEAP
  free_fnc(tensor_arena);
#endif

  // scratch buffers are allocated within the arena, so just reset the counter so memory can be reused
  scratch_buffers_ix = 0;

  // overflow buffers are on the heap, so free them first
  for (size_t ix = 0; ix < overflow_buffers_ix; ix++) {
    ei_free(overflow_buffers[ix]);
  }
  overflow_buffers_ix = 0;
  return kTfLiteOk;
}
